Language model created by QuickLM on Sun Feb  7 10:54:31 EST 2021
Copyright (c) 1996-2010 Carnegie Mellon University and Alexander I. Rudnicky

The model is in standard ARPA format, designed by Doug Paul while he was at MITRE.

The code that was used to produce this language model is available in Open Source.
Please visit http://www.speech.cs.cmu.edu/tools/ for more information

The (fixed) discount mass is 0.5. The backoffs are computed using the ratio method.
This model based on a corpus of 12 sentences and 17 words

\data\
ngram 1=17
ngram 2=28
ngram 3=32

\1-grams:
-1.0731 </s> -0.3010
-1.0731 <s> -0.2627
-1.3741 AND -0.2823
-2.1523 BEAUTY -0.2627
-1.5502 CHROME -0.2422
-1.6752 CLOSE -0.2627
-2.1523 CRICKET -0.2980
-1.8513 FACEBOOK -0.2627
-1.8513 INDIA -0.2593
-2.1523 NEW -0.2918
-2.1523 NEWS -0.2627
-2.1523 OLD -0.2918
-1.1980 OPEN -0.2627
-2.1523 PARTY -0.2918
-1.3741 SEARCH -0.2823
-1.6752 SONGS -0.2627
-1.3741 YOUTUBE -0.2422

\2-grams:
-0.9031 <s> CLOSE 0.0000
-0.4260 <s> OPEN 0.0000
-0.3010 AND SEARCH 0.0000
-0.3010 BEAUTY </s> -0.3010
-0.6021 CHROME </s> -0.3010
-0.6021 CHROME AND 0.0000
-0.7782 CLOSE CHROME -0.1761
-0.7782 CLOSE FACEBOOK 0.0000
-0.7782 CLOSE YOUTUBE -0.2218
-0.3010 CRICKET NEWS 0.0000
-0.3010 FACEBOOK </s> -0.3010
-0.6021 INDIA </s> -0.3010
-0.6021 INDIA BEAUTY 0.0000
-0.3010 NEW SONGS 0.0000
-0.3010 NEWS </s> -0.3010
-0.3010 OLD SONGS 0.0000
-0.7782 OPEN CHROME 0.0000
-1.2553 OPEN FACEBOOK 0.0000
-0.5563 OPEN YOUTUBE 0.0000
-0.3010 PARTY SONGS 0.0000
-1.0792 SEARCH CRICKET 0.0000
-0.7782 SEARCH INDIA 0.0000
-1.0792 SEARCH NEW 0.0000
-1.0792 SEARCH OLD 0.0000
-1.0792 SEARCH PARTY 0.0000
-0.3010 SONGS </s> -0.3010
-0.7782 YOUTUBE </s> -0.3010
-0.4771 YOUTUBE AND 0.0000

\3-grams:
-0.7782 <s> CLOSE CHROME
-0.7782 <s> CLOSE FACEBOOK
-0.7782 <s> CLOSE YOUTUBE
-0.7782 <s> OPEN CHROME
-1.2553 <s> OPEN FACEBOOK
-0.5563 <s> OPEN YOUTUBE
-1.0792 AND SEARCH CRICKET
-0.7782 AND SEARCH INDIA
-1.0792 AND SEARCH NEW
-1.0792 AND SEARCH OLD
-1.0792 AND SEARCH PARTY
-0.3010 CHROME AND SEARCH
-0.3010 CLOSE CHROME </s>
-0.3010 CLOSE FACEBOOK </s>
-0.3010 CLOSE YOUTUBE </s>
-0.3010 CRICKET NEWS </s>
-0.3010 INDIA BEAUTY </s>
-0.3010 NEW SONGS </s>
-0.3010 OLD SONGS </s>
-0.7782 OPEN CHROME </s>
-0.4771 OPEN CHROME AND
-0.3010 OPEN FACEBOOK </s>
-1.0000 OPEN YOUTUBE </s>
-0.3979 OPEN YOUTUBE AND
-0.3010 PARTY SONGS </s>
-0.3010 SEARCH CRICKET NEWS
-0.6021 SEARCH INDIA </s>
-0.6021 SEARCH INDIA BEAUTY
-0.3010 SEARCH NEW SONGS
-0.3010 SEARCH OLD SONGS
-0.3010 SEARCH PARTY SONGS
-0.3010 YOUTUBE AND SEARCH

\end\